<?xml version="1.0" encoding="UTF-8"?>
<PMML version="4.2" xmlns="http://www.dmg.org/PMML-4_2">
  <Header copyright="oskhar">
    <Application name="KNIME" version="4.7.2"/>
  </Header>
  <DataDictionary numberOfFields="15">
    <DataField name="energi_kcal" optype="continuous" dataType="double">
      <Interval closure="closedClosed" leftMargin="0.0" rightMargin="130.0"/>
    </DataField>
    <DataField name="protein_g" optype="continuous" dataType="double">
      <Interval closure="closedClosed" leftMargin="0.0" rightMargin="5.0"/>
    </DataField>
    <DataField name="kalsium_mg" optype="continuous" dataType="integer">
      <Interval closure="closedClosed" leftMargin="0.0" rightMargin="200.0"/>
    </DataField>
    <DataField name="zat_besi_mg" optype="continuous" dataType="double">
      <Interval closure="closedClosed" leftMargin="0.0" rightMargin="10.0"/>
    </DataField>
    <DataField name="gula_g" optype="continuous" dataType="integer">
      <Interval closure="closedClosed" leftMargin="0.0" rightMargin="20.0"/>
    </DataField>
    <DataField name="lemak_g" optype="continuous" dataType="double">
      <Interval closure="closedClosed" leftMargin="0.0" rightMargin="4.0"/>
    </DataField>
    <DataField name="vitamin_a_ug" optype="continuous" dataType="double">
      <Interval closure="closedClosed" leftMargin="0.0" rightMargin="500.0"/>
    </DataField>
    <DataField name="vitamin_d_ug" optype="continuous" dataType="double">
      <Interval closure="closedClosed" leftMargin="0.0" rightMargin="1000.0"/>
    </DataField>
    <DataField name="vitamin_c_mg" optype="continuous" dataType="double">
      <Interval closure="closedClosed" leftMargin="0.0" rightMargin="6.0"/>
    </DataField>
    <DataField name="zinc_mg" optype="continuous" dataType="double">
      <Interval closure="closedClosed" leftMargin="1.5" rightMargin="3.0"/>
    </DataField>
    <DataField name="omega_3_mg" optype="continuous" dataType="integer">
      <Interval closure="closedClosed" leftMargin="100.0" rightMargin="250.0"/>
    </DataField>
    <DataField name="omega_6_mg" optype="continuous" dataType="integer">
      <Interval closure="closedClosed" leftMargin="200.0" rightMargin="300.0"/>
    </DataField>
    <DataField name="folate_ug" optype="continuous" dataType="integer">
      <Interval closure="closedClosed" leftMargin="50.0" rightMargin="70.0"/>
    </DataField>
    <DataField name="magnesium_mg" optype="continuous" dataType="integer">
      <Interval closure="closedClosed" leftMargin="25.0" rightMargin="40.0"/>
    </DataField>
    <DataField name="scenario" optype="categorical" dataType="string">
      <Value value="20"/>
      <Value value="18"/>
      <Value value="7"/>
      <Value value="2"/>
      <Value value="19"/>
      <Value value="3"/>
      <Value value="16"/>
      <Value value="24"/>
      <Value value="15"/>
      <Value value="8"/>
      <Value value="13"/>
      <Value value="5"/>
      <Value value="9"/>
      <Value value="11"/>
      <Value value="22"/>
      <Value value="14"/>
      <Value value="4"/>
      <Value value="10"/>
      <Value value="25"/>
      <Value value="21"/>
      <Value value="1"/>
      <Value value="12"/>
      <Value value="23"/>
      <Value value="26"/>
      <Value value="27"/>
      <Value value="6"/>
      <Value value="17"/>
    </DataField>
  </DataDictionary>
  <TreeModel modelName="DecisionTree" functionName="classification" splitCharacteristic="binarySplit" missingValueStrategy="lastPrediction" noTrueChildStrategy="returnNullPrediction">
    <MiningSchema>
      <MiningField name="energi_kcal" invalidValueTreatment="asIs"/>
      <MiningField name="protein_g" invalidValueTreatment="asIs"/>
      <MiningField name="kalsium_mg" invalidValueTreatment="asIs"/>
      <MiningField name="zat_besi_mg" invalidValueTreatment="asIs"/>
      <MiningField name="gula_g" invalidValueTreatment="asIs"/>
      <MiningField name="lemak_g" invalidValueTreatment="asIs"/>
      <MiningField name="vitamin_a_ug" invalidValueTreatment="asIs"/>
      <MiningField name="vitamin_d_ug" invalidValueTreatment="asIs"/>
      <MiningField name="vitamin_c_mg" invalidValueTreatment="asIs"/>
      <MiningField name="zinc_mg" invalidValueTreatment="asIs"/>
      <MiningField name="omega_3_mg" invalidValueTreatment="asIs"/>
      <MiningField name="omega_6_mg" invalidValueTreatment="asIs"/>
      <MiningField name="folate_ug" invalidValueTreatment="asIs"/>
      <MiningField name="magnesium_mg" invalidValueTreatment="asIs"/>
      <MiningField name="scenario" invalidValueTreatment="asIs" usageType="target"/>
    </MiningSchema>
    <Node id="0" score="20" recordCount="837.0">
      <True/>
      <ScoreDistribution value="20" recordCount="31.0"/>
      <ScoreDistribution value="2" recordCount="31.0"/>
      <ScoreDistribution value="19" recordCount="31.0"/>
      <ScoreDistribution value="3" recordCount="31.0"/>
      <ScoreDistribution value="24" recordCount="31.0"/>
      <ScoreDistribution value="15" recordCount="31.0"/>
      <ScoreDistribution value="13" recordCount="31.0"/>
      <ScoreDistribution value="5" recordCount="31.0"/>
      <ScoreDistribution value="11" recordCount="31.0"/>
      <ScoreDistribution value="22" recordCount="31.0"/>
      <ScoreDistribution value="14" recordCount="31.0"/>
      <ScoreDistribution value="4" recordCount="31.0"/>
      <ScoreDistribution value="16" recordCount="31.0"/>
      <ScoreDistribution value="10" recordCount="31.0"/>
      <ScoreDistribution value="21" recordCount="31.0"/>
      <ScoreDistribution value="1" recordCount="31.0"/>
      <ScoreDistribution value="12" recordCount="31.0"/>
      <ScoreDistribution value="7" recordCount="31.0"/>
      <ScoreDistribution value="25" recordCount="31.0"/>
      <ScoreDistribution value="26" recordCount="31.0"/>
      <ScoreDistribution value="9" recordCount="31.0"/>
      <ScoreDistribution value="27" recordCount="31.0"/>
      <ScoreDistribution value="6" recordCount="31.0"/>
      <ScoreDistribution value="23" recordCount="31.0"/>
      <ScoreDistribution value="18" recordCount="31.0"/>
      <ScoreDistribution value="17" recordCount="31.0"/>
      <ScoreDistribution value="8" recordCount="31.0"/>
      <Node id="1" score="6" recordCount="30.0">
        <SimplePredicate field="folate_ug" operator="lessOrEqual" value="50.5"/>
        <ScoreDistribution value="20" recordCount="1.0"/>
        <ScoreDistribution value="2" recordCount="0.0"/>
        <ScoreDistribution value="19" recordCount="2.0"/>
        <ScoreDistribution value="3" recordCount="0.0"/>
        <ScoreDistribution value="24" recordCount="1.0"/>
        <ScoreDistribution value="15" recordCount="0.0"/>
        <ScoreDistribution value="13" recordCount="1.0"/>
        <ScoreDistribution value="5" recordCount="1.0"/>
        <ScoreDistribution value="11" recordCount="1.0"/>
        <ScoreDistribution value="22" recordCount="0.0"/>
        <ScoreDistribution value="14" recordCount="1.0"/>
        <ScoreDistribution value="4" recordCount="0.0"/>
        <ScoreDistribution value="16" recordCount="2.0"/>
        <ScoreDistribution value="10" recordCount="0.0"/>
        <ScoreDistribution value="21" recordCount="2.0"/>
        <ScoreDistribution value="1" recordCount="2.0"/>
        <ScoreDistribution value="12" recordCount="0.0"/>
        <ScoreDistribution value="7" recordCount="0.0"/>
        <ScoreDistribution value="25" recordCount="0.0"/>
        <ScoreDistribution value="26" recordCount="1.0"/>
        <ScoreDistribution value="9" recordCount="1.0"/>
        <ScoreDistribution value="27" recordCount="3.0"/>
        <ScoreDistribution value="6" recordCount="7.0"/>
        <ScoreDistribution value="23" recordCount="0.0"/>
        <ScoreDistribution value="18" recordCount="0.0"/>
        <ScoreDistribution value="17" recordCount="2.0"/>
        <ScoreDistribution value="8" recordCount="2.0"/>
        <Node id="2" score="6" recordCount="24.0">
          <SimplePredicate field="omega_6_mg" operator="lessOrEqual" value="284.5"/>
          <ScoreDistribution value="20" recordCount="1.0"/>
          <ScoreDistribution value="2" recordCount="0.0"/>
          <ScoreDistribution value="19" recordCount="2.0"/>
          <ScoreDistribution value="3" recordCount="0.0"/>
          <ScoreDistribution value="24" recordCount="1.0"/>
          <ScoreDistribution value="15" recordCount="0.0"/>
          <ScoreDistribution value="13" recordCount="1.0"/>
          <ScoreDistribution value="5" recordCount="1.0"/>
          <ScoreDistribution value="11" recordCount="1.0"/>
          <ScoreDistribution value="22" recordCount="0.0"/>
          <ScoreDistribution value="14" recordCount="1.0"/>
          <ScoreDistribution value="4" recordCount="0.0"/>
          <ScoreDistribution value="16" recordCount="2.0"/>
          <ScoreDistribution value="10" recordCount="0.0"/>
          <ScoreDistribution value="21" recordCount="0.0"/>
          <ScoreDistribution value="1" recordCount="2.0"/>
          <ScoreDistribution value="12" recordCount="0.0"/>
          <ScoreDistribution value="7" recordCount="0.0"/>
          <ScoreDistribution value="25" recordCount="0.0"/>
          <ScoreDistribution value="26" recordCount="1.0"/>
          <ScoreDistribution value="9" recordCount="1.0"/>
          <ScoreDistribution value="27" recordCount="1.0"/>
          <ScoreDistribution value="6" recordCount="7.0"/>
          <ScoreDistribution value="23" recordCount="0.0"/>
          <ScoreDistribution value="18" recordCount="0.0"/>
          <ScoreDistribution value="17" recordCount="0.0"/>
          <ScoreDistribution value="8" recordCount="2.0"/>
          <Node id="3" score="6" recordCount="8.0">
            <SimplePredicate field="gula_g" operator="lessOrEqual" value="5.5"/>
            <ScoreDistribution value="20" recordCount="0.0"/>
            <ScoreDistribution value="2" recordCount="0.0"/>
            <ScoreDistribution value="19" recordCount="1.0"/>
            <ScoreDistribution value="3" recordCount="0.0"/>
            <ScoreDistribution value="24" recordCount="0.0"/>
            <ScoreDistribution value="15" recordCount="0.0"/>
            <ScoreDistribution value="13" recordCount="0.0"/>
            <ScoreDistribution value="5" recordCount="0.0"/>
            <ScoreDistribution value="11" recordCount="0.0"/>
            <ScoreDistribution value="22" recordCount="0.0"/>
            <ScoreDistribution value="14" recordCount="0.0"/>
            <ScoreDistribution value="4" recordCount="0.0"/>
            <ScoreDistribution value="16" recordCount="1.0"/>
            <ScoreDistribution value="10" recordCount="0.0"/>
            <ScoreDistribution value="21" recordCount="0.0"/>
            <ScoreDistribution value="1" recordCount="1.0"/>
            <ScoreDistribution value="12" recordCount="0.0"/>
            <ScoreDistribution value="7" recordCount="0.0"/>
            <ScoreDistribution value="25" recordCount="0.0"/>
            <ScoreDistribution value="26" recordCount="0.0"/>
            <ScoreDistribution value="9" recordCount="0.0"/>
            <ScoreDistribution value="27" recordCount="0.0"/>
            <ScoreDistribution value="6" recordCount="5.0"/>
            <ScoreDistribution value="23" recordCount="0.0"/>
            <ScoreDistribution value="18" recordCount="0.0"/>
            <ScoreDistribution value="17" recordCount="0.0"/>
            <ScoreDistribution value="8" recordCount="0.0"/>
            <Node id="4" score="19" recordCount="3.0">
              <SimplePredicate field="vitamin_a_ug" operator="lessOrEqual" value="150.0"/>
              <ScoreDistribution value="20" recordCount="0.0"/>
              <ScoreDistribution value="2" recordCount="0.0"/>
              <ScoreDistribution value="19" recordCount="1.0"/>
              <ScoreDistribution value="3" recordCount="0.0"/>
              <ScoreDistribution value="24" recordCount="0.0"/>
              <ScoreDistribution value="15" recordCount="0.0"/>
              <ScoreDistribution value="13" recordCount="0.0"/>
              <ScoreDistribution value="5" recordCount="0.0"/>
              <ScoreDistribution value="11" recordCount="0.0"/>
              <ScoreDistribution value="22" recordCount="0.0"/>
              <ScoreDistribution value="14" recordCount="0.0"/>
              <ScoreDistribution value="4" recordCount="0.0"/>
              <ScoreDistribution value="16" recordCount="1.0"/>
              <ScoreDistribution value="10" recordCount="0.0"/>
              <ScoreDistribution value="21" recordCount="0.0"/>
              <ScoreDistribution value="1" recordCount="1.0"/>
              <ScoreDistribution value="12" recordCount="0.0"/>
              <ScoreDistribution value="7" recordCount="0.0"/>
              <ScoreDistribution value="25" recordCount="0.0"/>
              <ScoreDistribution value="26" recordCount="0.0"/>
              <ScoreDistribution value="9" recordCount="0.0"/>
              <ScoreDistribution value="27" recordCount="0.0"/>
              <ScoreDistribution value="6" recordCount="0.0"/>
              <ScoreDistribution value="23" recordCount="0.0"/>
              <ScoreDistribution value="18" recordCount="0.0"/>
              <ScoreDistribution value="17" recordCount="0.0"/>
              <ScoreDistribution value="8" recordCount="0.0"/>
            </Node>
            <Node id="5" score="6" recordCount="5.0">
              <SimplePredicate field="vitamin_a_ug" operator="greaterThan" value="150.0"/>
              <ScoreDistribution value="20" recordCount="0.0"/>
              <ScoreDistribution value="2" recordCount="0.0"/>
              <ScoreDistribution value="19" recordCount="0.0"/>
              <ScoreDistribution value="3" recordCount="0.0"/>
              <ScoreDistribution value="24" recordCount="0.0"/>
              <ScoreDistribution value="15" recordCount="0.0"/>
              <ScoreDistribution value="13" recordCount="0.0"/>
              <ScoreDistribution value="5" recordCount="0.0"/>
              <ScoreDistribution value="11" recordCount="0.0"/>
              <ScoreDistribution value="22" recordCount="0.0"/>
              <ScoreDistribution value="14" recordCount="0.0"/>
              <ScoreDistribution value="4" recordCount="0.0"/>
              <ScoreDistribution value="16" recordCount="0.0"/>
              <ScoreDistribution value="10" recordCount="0.0"/>
              <ScoreDistribution value="21" recordCount="0.0"/>
              <ScoreDistribution value="1" recordCount="0.0"/>
              <ScoreDistribution value="12" recordCount="0.0"/>
              <ScoreDistribution value="7" recordCount="0.0"/>
              <ScoreDistribution value="25" recordCount="0.0"/>
              <ScoreDistribution value="26" recordCount="0.0"/>
              <ScoreDistribution value="9" recordCount="0.0"/>
              <ScoreDistribution value="27" recordCount="0.0"/>
              <ScoreDistribution value="6" recordCount="5.0"/>
              <ScoreDistribution value="23" recordCount="0.0"/>
              <ScoreDistribution value="18" recordCount="0.0"/>
              <ScoreDistribution value="17" recordCount="0.0"/>
              <ScoreDistribution value="8" recordCount="0.0"/>
            </Node>
          </Node>
          <Node id="6" score="6" recordCount="16.0">
            <SimplePredicate field="gula_g" operator="greaterThan" value="5.5"/>
            <ScoreDistribution value="20" recordCount="1.0"/>
            <ScoreDistribution value="2" recordCount="0.0"/>
            <ScoreDistribution value="19" recordCount="1.0"/>
            <ScoreDistribution value="3" recordCount="0.0"/>
            <ScoreDistribution value="24" recordCount="1.0"/>
            <ScoreDistribution value="15" recordCount="0.0"/>
            <ScoreDistribution value="13" recordCount="1.0"/>
            <ScoreDistribution value="5" recordCount="1.0"/>
            <ScoreDistribution value="11" recordCount="1.0"/>
            <ScoreDistribution value="22" recordCount="0.0"/>
            <ScoreDistribution value="14" recordCount="1.0"/>
            <ScoreDistribution value="4" recordCount="0.0"/>
            <ScoreDistribution value="16" recordCount="1.0"/>
            <ScoreDistribution value="10" recordCount="0.0"/>
            <ScoreDistribution value="21" recordCount="0.0"/>
            <ScoreDistribution value="1" recordCount="1.0"/>
            <ScoreDistribution value="12" recordCount="0.0"/>
            <ScoreDistribution value="7" recordCount="0.0"/>
            <ScoreDistribution value="25" recordCount="0.0"/>
            <ScoreDistribution value="26" recordCount="1.0"/>
            <ScoreDistribution value="9" recordCount="1.0"/>
            <ScoreDistribution value="27" recordCount="1.0"/>
            <ScoreDistribution value="6" recordCount="2.0"/>
            <ScoreDistribution value="23" recordCount="0.0"/>
            <ScoreDistribution value="18" recordCount="0.0"/>
            <ScoreDistribution value="17" recordCount="0.0"/>
            <ScoreDistribution value="8" recordCount="2.0"/>
            <Node id="7" score="8" recordCount="4.0">
              <SimplePredicate field="vitamin_c_mg" operator="lessOrEqual" value="3.9"/>
              <ScoreDistribution value="20" recordCount="0.0"/>
              <ScoreDistribution value="2" recordCount="0.0"/>
              <ScoreDistribution value="19" recordCount="0.0"/>
              <ScoreDistribution value="3" recordCount="0.0"/>
              <ScoreDistribution value="24" recordCount="0.0"/>
              <ScoreDistribution value="15" recordCount="0.0"/>
              <ScoreDistribution value="13" recordCount="0.0"/>
              <ScoreDistribution value="5" recordCount="0.0"/>
              <ScoreDistribution value="11" recordCount="1.0"/>
              <ScoreDistribution value="22" recordCount="0.0"/>
              <ScoreDistribution value="14" recordCount="0.0"/>
              <ScoreDistribution value="4" recordCount="0.0"/>
              <ScoreDistribution value="16" recordCount="0.0"/>
              <ScoreDistribution value="10" recordCount="0.0"/>
              <ScoreDistribution value="21" recordCount="0.0"/>
              <ScoreDistribution value="1" recordCount="0.0"/>
              <ScoreDistribution value="12" recordCount="0.0"/>
              <ScoreDistribution value="7" recordCount="0.0"/>
              <ScoreDistribution value="25" recordCount="0.0"/>
              <ScoreDistribution value="26" recordCount="1.0"/>
              <ScoreDistribution value="9" recordCount="0.0"/>
              <ScoreDistribution value="27" recordCount="0.0"/>
              <ScoreDistribution value="6" recordCount="0.0"/>
              <ScoreDistribution value="23" recordCount="0.0"/>
              <ScoreDistribution value="18" recordCount="0.0"/>
              <ScoreDistribution value="17" recordCount="0.0"/>
              <ScoreDistribution value="8" recordCount="2.0"/>
              <Node id="8" score="11" recordCount="2.0">
                <SimplePredicate field="omega_6_mg" operator="lessOrEqual" value="230.0"/>
                <ScoreDistribution value="20" recordCount="0.0"/>
                <ScoreDistribution value="2" recordCount="0.0"/>
                <ScoreDistribution value="19" recordCount="0.0"/>
                <ScoreDistribution value="3" recordCount="0.0"/>
                <ScoreDistribution value="24" recordCount="0.0"/>
                <ScoreDistribution value="15" recordCount="0.0"/>
                <ScoreDistribution value="13" recordCount="0.0"/>
                <ScoreDistribution value="5" recordCount="0.0"/>
                <ScoreDistribution value="11" recordCount="1.0"/>
                <ScoreDistribution value="22" recordCount="0.0"/>
                <ScoreDistribution value="14" recordCount="0.0"/>
                <ScoreDistribution value="4" recordCount="0.0"/>
                <ScoreDistribution value="16" recordCount="0.0"/>
                <ScoreDistribution value="10" recordCount="0.0"/>
                <ScoreDistribution value="21" recordCount="0.0"/>
                <ScoreDistribution value="1" recordCount="0.0"/>
                <ScoreDistribution value="12" recordCount="0.0"/>
                <ScoreDistribution value="7" recordCount="0.0"/>
                <ScoreDistribution value="25" recordCount="0.0"/>
                <ScoreDistribution value="26" recordCount="1.0"/>
                <ScoreDistribution value="9" recordCount="0.0"/>
                <ScoreDistribution value="27" recordCount="0.0"/>
                <ScoreDistribution value="6" recordCount="0.0"/>
                <ScoreDistribution value="23" recordCount="0.0"/>
                <ScoreDistribution value="18" recordCount="0.0"/>
                <ScoreDistribution value="17" recordCount="0.0"/>
                <ScoreDistribution value="8" recordCount="0.0"/>
              </Node>
              <Node id="9" score="8" recordCount="2.0">
                <SimplePredicate field="omega_6_mg" operator="greaterThan" value="230.0"/>
                <ScoreDistribution value="20" recordCount="0.0"/>
                <ScoreDistribution value="2" recordCount="0.0"/>
                <ScoreDistribution value="19" recordCount="0.0"/>
                <ScoreDistribution value="3" recordCount="0.0"/>
                <ScoreDistribution value="24" recordCount="0.0"/>
                <ScoreDistribution value="15" recordCount="0.0"/>
                <ScoreDistribution value="13" recordCount="0.0"/>
                <ScoreDistribution value="5" recordCount="0.0"/>
                <ScoreDistribution value="11" recordCount="0.0"/>
                <ScoreDistribution value="22" recordCount="0.0"/>
                <ScoreDistribution value="14" recordCount="0.0"/>
                <ScoreDistribution value="4" recordCount="0.0"/>
                <ScoreDistribution value="16" recordCount="0.0"/>
                <ScoreDistribution value="10" recordCount="0.0"/>
                <ScoreDistribution value="21" recordCount="0.0"/>
                <ScoreDistribution value="1" recordCount="0.0"/>
                <ScoreDistribution value="12" recordCount="0.0"/>
                <ScoreDistribution value="7" recordCount="0.0"/>
                <ScoreDistribution value="25" recordCount="0.0"/>
                <ScoreDistribution value="26" recordCount="0.0"/>
                <ScoreDistribution value="9" recordCount="0.0"/>
                <ScoreDistribution value="27" recordCount="0.0"/>
                <ScoreDistribution value="6" recordCount="0.0"/>
                <ScoreDistribution value="23" recordCount="0.0"/>
                <ScoreDistribution value="18" recordCount="0.0"/>
                <ScoreDistribution value="17" recordCount="0.0"/>
                <ScoreDistribution value="8" recordCount="2.0"/>
              </Node>
            </Node>
            <Node id="10" score="6" recordCount="12.0">
              <SimplePredicate field="vitamin_c_mg" operator="greaterThan" value="3.9"/>
              <ScoreDistribution value="20" recordCount="1.0"/>
              <ScoreDistribution value="2" recordCount="0.0"/>
              <ScoreDistribution value="19" recordCount="1.0"/>
              <ScoreDistribution value="3" recordCount="0.0"/>
              <ScoreDistribution value="24" recordCount="1.0"/>
              <ScoreDistribution value="15" recordCount="0.0"/>
              <ScoreDistribution value="13" recordCount="1.0"/>
              <ScoreDistribution value="5" recordCount="1.0"/>
              <ScoreDistribution value="11" recordCount="0.0"/>
              <ScoreDistribution value="22" recordCount="0.0"/>
              <ScoreDistribution value="14" recordCount="1.0"/>
              <ScoreDistribution value="4" recordCount="0.0"/>
              <ScoreDistribution value="16" recordCount="1.0"/>
              <ScoreDistribution value="10" recordCount="0.0"/>
              <ScoreDistribution value="21" recordCount="0.0"/>
              <ScoreDistribution value="1" recordCount="1.0"/>
              <ScoreDistribution value="12" recordCount="0.0"/>
              <ScoreDistribution value="7" recordCount="0.0"/>
              <ScoreDistribution value="25" recordCount="0.0"/>
              <ScoreDistribution value="26" recordCount="0.0"/>
              <ScoreDistribution value="9" recordCount="1.0"/>
              <ScoreDistribution value="27" recordCount="1.0"/>
              <ScoreDistribution value="6" recordCount="2.0"/>
              <ScoreDistribution value="23" recordCount="0.0"/>
              <ScoreDistribution value="18" recordCount="0.0"/>
              <ScoreDistribution value="17" recordCount="0.0"/>
              <ScoreDistribution value="8" recordCount="0.0"/>
              <Node id="11" score="19" recordCount="7.0">
                <SimplePredicate field="vitamin_c_mg" operator="lessOrEqual" value="5.1"/>
                <ScoreDistribution value="20" recordCount="0.0"/>
                <ScoreDistribution value="2" recordCount="0.0"/>
                <ScoreDistribution value="19" recordCount="1.0"/>
                <ScoreDistribution value="3" recordCount="0.0"/>
                <ScoreDistribution value="24" recordCount="1.0"/>
                <ScoreDistribution value="15" recordCount="0.0"/>
                <ScoreDistribution value="13" recordCount="1.0"/>
                <ScoreDistribution value="5" recordCount="1.0"/>
                <ScoreDistribution value="11" recordCount="0.0"/>
                <ScoreDistribution value="22" recordCount="0.0"/>
                <ScoreDistribution value="14" recordCount="0.0"/>
                <ScoreDistribution value="4" recordCount="0.0"/>
                <ScoreDistribution value="16" recordCount="1.0"/>
                <ScoreDistribution value="10" recordCount="0.0"/>
                <ScoreDistribution value="21" recordCount="0.0"/>
                <ScoreDistribution value="1" recordCount="1.0"/>
                <ScoreDistribution value="12" recordCount="0.0"/>
                <ScoreDistribution value="7" recordCount="0.0"/>
                <ScoreDistribution value="25" recordCount="0.0"/>
                <ScoreDistribution value="26" recordCount="0.0"/>
                <ScoreDistribution value="9" recordCount="0.0"/>
                <ScoreDistribution value="27" recordCount="1.0"/>
                <ScoreDistribution value="6" recordCount="0.0"/>
                <ScoreDistribution value="23" recordCount="0.0"/>
                <ScoreDistribution value="18" recordCount="0.0"/>
                <ScoreDistribution value="17" recordCount="0.0"/>
                <ScoreDistribution value="8" recordCount="0.0"/>
                <Node id="12" score="24" recordCount="4.0">
                  <SimplePredicate field="magnesium_mg" operator="lessOrEqual" value="31.0"/>
                  <ScoreDistribution value="20" recordCount="0.0"/>
                  <ScoreDistribution value="2" recordCount="0.0"/>
                  <ScoreDistribution value="19" recordCount="0.0"/>
                  <ScoreDistribution value="3" recordCount="0.0"/>
                  <ScoreDistribution value="24" recordCount="1.0"/>
                  <ScoreDistribution value="15" recordCount="0.0"/>
                  <ScoreDistribution value="13" recordCount="1.0"/>
                  <ScoreDistribution value="5" recordCount="1.0"/>
                  <ScoreDistribution value="11" recordCount="0.0"/>
                  <ScoreDistribution value="22" recordCount="0.0"/>
                  <ScoreDistribution value="14" recordCount="0.0"/>
                  <ScoreDistribution value="4" recordCount="0.0"/>
                  <ScoreDistribution value="16" recordCount="0.0"/>
                  <ScoreDistribution value="10" recordCount="0.0"/>
                  <ScoreDistribution value="21" recordCount="0.0"/>
                  <ScoreDistribution value="1" recordCount="1.0"/>
                  <ScoreDistribution value="12" recordCount="0.0"/>
                  <ScoreDistribution value="7" recordCount="0.0"/>
                  <ScoreDistribution value="25" recordCount="0.0"/>
                  <ScoreDistribution value="26" recordCount="0.0"/>
                  <ScoreDistribution value="9" recordCount="0.0"/>
                  <ScoreDistribution value="27" recordCount="0.0"/>
                  <ScoreDistribution value="6" recordCount="0.0"/>
                  <ScoreDistribution value="23" recordCount="0.0"/>
                  <ScoreDistribution value="18" recordCount="0.0"/>
                  <ScoreDistribution value="17" recordCount="0.0"/>
                  <ScoreDistribution value="8" recordCount="0.0"/>
                  <Node id="13" score="5" recordCount="2.0">
                    <SimplePredicate field="omega_6_mg" operator="lessOrEqual" value="251.0"/>
                    <ScoreDistribution value="20" recordCount="0.0"/>
                    <ScoreDistribution value="2" recordCount="0.0"/>
                    <ScoreDistribution value="19" recordCount="0.0"/>
                    <ScoreDistribution value="3" recordCount="0.0"/>
                    <ScoreDistribution value="24" recordCount="0.0"/>
                    <ScoreDistribution value="15" recordCount="0.0"/>
                    <ScoreDistribution value="13" recordCount="0.0"/>
                    <ScoreDistribution value="5" recordCount="1.0"/>
                    <ScoreDistribution value="11" recordCount="0.0"/>
                    <ScoreDistribution value="22" recordCount="0.0"/>
                    <ScoreDistribution value="14" recordCount="0.0"/>
                    <ScoreDistribution value="4" recordCount="0.0"/>
                    <ScoreDistribution value="16" recordCount="0.0"/>
                    <ScoreDistribution value="10" recordCount="0.0"/>
                    <ScoreDistribution value="21" recordCount="0.0"/>
                    <ScoreDistribution value="1" recordCount="1.0"/>
                    <ScoreDistribution value="12" recordCount="0.0"/>
                    <ScoreDistribution value="7" recordCount="0.0"/>
                    <ScoreDistribution value="25" recordCount="0.0"/>
                    <ScoreDistribution value="26" recordCount="0.0"/>
                    <ScoreDistribution value="9" recordCount="0.0"/>
                    <ScoreDistribution value="27" recordCount="0.0"/>
                    <ScoreDistribution value="6" recordCount="0.0"/>
                    <ScoreDistribution value="23" recordCount="0.0"/>
                    <ScoreDistribution value="18" recordCount="0.0"/>
                    <ScoreDistribution value="17" recordCount="0.0"/>
                    <ScoreDistribution value="8" recordCount="0.0"/>
                  </Node>
                  <Node id="14" score="24" recordCount="2.0">
                    <SimplePredicate field="omega_6_mg" operator="greaterThan" value="251.0"/>
                    <ScoreDistribution value="20" recordCount="0.0"/>
                    <ScoreDistribution value="2" recordCount="0.0"/>
                    <ScoreDistribution value="19" recordCount="0.0"/>
                    <ScoreDistribution value="3" recordCount="0.0"/>
                    <ScoreDistribution value="24" recordCount="1.0"/>
                    <ScoreDistribution value="15" recordCount="0.0"/>
                    <ScoreDistribution value="13" recordCount="1.0"/>
                    <ScoreDistribution value="5" recordCount="0.0"/>
                    <ScoreDistribution value="11" recordCount="0.0"/>
                    <ScoreDistribution value="22" recordCount="0.0"/>
                    <ScoreDistribution value="14" recordCount="0.0"/>
                    <ScoreDistribution value="4" recordCount="0.0"/>
                    <ScoreDistribution value="16" recordCount="0.0"/>
                    <ScoreDistribution value="10" recordCount="0.0"/>
                    <ScoreDistribution value="21" recordCount="0.0"/>
                    <ScoreDistribution value="1" recordCount="0.0"/>
                    <ScoreDistribution value="12" recordCount="0.0"/>
                    <ScoreDistribution value="7" recordCount="0.0"/>
                    <ScoreDistribution value="25" recordCount="0.0"/>
                    <ScoreDistribution value="26" recordCount="0.0"/>
                    <ScoreDistribution value="9" recordCount="0.0"/>
                    <ScoreDistribution value="27" recordCount="0.0"/>
                    <ScoreDistribution value="6" recordCount="0.0"/>
                    <ScoreDistribution value="23" recordCount="0.0"/>
                    <ScoreDistribution value="18" recordCount="0.0"/>
                    <ScoreDistribution value="17" recordCount="0.0"/>
                    <ScoreDistribution value="8" recordCount="0.0"/>
                  </Node>
                </Node>
                <Node id="15" score="19" recordCount="3.0">
                  <SimplePredicate field="magnesium_mg" operator="greaterThan" value="31.0"/>
                  <ScoreDistribution value="20" recordCount="0.0"/>
                  <ScoreDistribution value="2" recordCount="0.0"/>
                  <ScoreDistribution value="19" recordCount="1.0"/>
                  <ScoreDistribution value="3" recordCount="0.0"/>
                  <ScoreDistribution value="24" recordCount="0.0"/>
                  <ScoreDistribution value="15" recordCount="0.0"/>
                  <ScoreDistribution value="13" recordCount="0.0"/>
                  <ScoreDistribution value="5" recordCount="0.0"/>
                  <ScoreDistribution value="11" recordCount="0.0"/>
                  <ScoreDistribution value="22" recordCount="0.0"/>
                  <ScoreDistribution value="14" recordCount="0.0"/>
                  <ScoreDistribution value="4" recordCount="0.0"/>
                  <ScoreDistribution value="16" recordCount="1.0"/>
                  <ScoreDistribution value="10" recordCount="0.0"/>
                  <ScoreDistribution value="21" recordCount="0.0"/>
                  <ScoreDistribution value="1" recordCount="0.0"/>
                  <ScoreDistribution value="12" recordCount="0.0"/>
                  <ScoreDistribution value="7" recordCount="0.0"/>
                  <ScoreDistribution value="25" recordCount="0.0"/>
                  <ScoreDistribution value="26" recordCount="0.0"/>
                  <ScoreDistribution value="9" recordCount="0.0"/>
                  <ScoreDistribution value="27" recordCount="1.0"/>
                  <ScoreDistribution value="6" recordCount="0.0"/>
                  <ScoreDistribution value="23" recordCount="0.0"/>
                  <ScoreDistribution value="18" recordCount="0.0"/>
                  <ScoreDistribution value="17" recordCount="0.0"/>
                  <ScoreDistribution value="8" recordCount="0.0"/>
                </Node>
              </Node>
              <Node id="16" score="6" recordCount="5.0">
                <SimplePredicate field="vitamin_c_mg" operator="greaterThan" value="5.1"/>
                <ScoreDistribution value="20" recordCount="1.0"/>
                <ScoreDistribution value="2" recordCount="0.0"/>
                <ScoreDistribution value="19" recordCount="0.0"/>
                <ScoreDistribution value="3" recordCount="0.0"/>
                <ScoreDistribution value="24" recordCount="0.0"/>
                <ScoreDistribution value="15" recordCount="0.0"/>
                <ScoreDistribution value="13" recordCount="0.0"/>
                <ScoreDistribution value="5" recordCount="0.0"/>
                <ScoreDistribution value="11" recordCount="0.0"/>
                <ScoreDistribution value="22" recordCount="0.0"/>
                <ScoreDistribution value="14" recordCount="1.0"/>
                <ScoreDistribution value="4" recordCount="0.0"/>
                <ScoreDistribution value="16" recordCount="0.0"/>
                <ScoreDistribution value="10" recordCount="0.0"/>
                <ScoreDistribution value="21" recordCount="0.0"/>
                <ScoreDistribution value="1" recordCount="0.0"/>
                <ScoreDistribution value="12" recordCount="0.0"/>
                <ScoreDistribution value="7" recordCount="0.0"/>
                <ScoreDistribution value="25" recordCount="0.0"/>
                <ScoreDistribution value="26" recordCount="0.0"/>
                <ScoreDistribution value="9" recordCount="1.0"/>
                <ScoreDistribution value="27" recordCount="0.0"/>
                <ScoreDistribution value="6" recordCount="2.0"/>
                <ScoreDistribution value="23" recordCount="0.0"/>
                <ScoreDistribution value="18" recordCount="0.0"/>
                <ScoreDistribution value="17" recordCount="0.0"/>
                <ScoreDistribution value="8" recordCount="0.0"/>
                <Node id="17" score="6" recordCount="2.0">
                  <SimplePredicate field="magnesium_mg" operator="lessOrEqual" value="31.0"/>
                  <ScoreDistribution value="20" recordCount="0.0"/>
                  <ScoreDistribution value="2" recordCount="0.0"/>
                  <ScoreDistribution value="19" recordCount="0.0"/>
                  <ScoreDistribution value="3" recordCount="0.0"/>
                  <ScoreDistribution value="24" recordCount="0.0"/>
                  <ScoreDistribution value="15" recordCount="0.0"/>
                  <ScoreDistribution value="13" recordCount="0.0"/>
                  <ScoreDistribution value="5" recordCount="0.0"/>
                  <ScoreDistribution value="11" recordCount="0.0"/>
                  <ScoreDistribution value="22" recordCount="0.0"/>
                  <ScoreDistribution value="14" recordCount="0.0"/>
                  <ScoreDistribution value="4" recordCount="0.0"/>
                  <ScoreDistribution value="16" recordCount="0.0"/>
                  <ScoreDistribution value="10" recordCount="0.0"/>
                  <ScoreDistribution value="21" recordCount="0.0"/>
                  <ScoreDistribution value="1" recordCount="0.0"/>
                  <ScoreDistribution value="12" recordCount="0.0"/>
                  <ScoreDistribution value="7" recordCount="0.0"/>
                  <ScoreDistribution value="25" recordCount="0.0"/>
                  <ScoreDistribution value="26" recordCount="0.0"/>
                  <ScoreDistribution value="9" recordCount="0.0"/>
                  <ScoreDistribution value="27" recordCount="0.0"/>
                  <ScoreDistribution value="6" recordCount="2.0"/>
                  <ScoreDistribution value="23" recordCount="0.0"/>
                  <ScoreDistribution value="18" recordCount="0.0"/>
                  <ScoreDistribution value="17" recordCount="0.0"/>
                  <ScoreDistribution value="8" recordCount="0.0"/>
                </Node>
                <Node id="18" score="20" recordCount="3.0">
                  <SimplePredicate field="magnesium_mg" operator="greaterThan" value="31.0"/>
                  <ScoreDistribution value="20" recordCount="1.0"/>
                  <ScoreDistribution value="2" recordCount="0.0"/>
                  <ScoreDistribution value="19" recordCount="0.0"/>
                  <ScoreDistribution value="3" recordCount="0.0"/>
                  <ScoreDistribution value="24" recordCount="0.0"/>
                  <ScoreDistribution value="15" recordCount="0.0"/>
                  <ScoreDistribution value="13" recordCount="0.0"/>
                  <ScoreDistribution value="5" recordCount="0.0"/>
                  <ScoreDistribution value="11" recordCount="0.0"/>
                  <ScoreDistribution value="22" recordCount="0.0"/>
                  <ScoreDistribution value="14" recordCount="1.0"/>
                  <ScoreDistribution value="4" recordCount="0.0"/>
                  <ScoreDistribution value="16" recordCount="0.0"/>
                  <ScoreDistribution value="10" recordCount="0.0"/>
                  <ScoreDistribution value="21" recordCount="0.0"/>
                  <ScoreDistribution value="1" recordCount="0.0"/>
                  <ScoreDistribution value="12" recordCount="0.0"/>
                  <ScoreDistribution value="7" recordCount="0.0"/>
                  <ScoreDistribution value="25" recordCount="0.0"/>
                  <ScoreDistribution value="26" recordCount="0.0"/>
                  <ScoreDistribution value="9" recordCount="1.0"/>
                  <ScoreDistribution value="27" recordCount="0.0"/>
                  <ScoreDistribution value="6" recordCount="0.0"/>
                  <ScoreDistribution value="23" recordCount="0.0"/>
                  <ScoreDistribution value="18" recordCount="0.0"/>
                  <ScoreDistribution value="17" recordCount="0.0"/>
                  <ScoreDistribution value="8" recordCount="0.0"/>
                </Node>
              </Node>
            </Node>
          </Node>
        </Node>
        <Node id="19" score="21" recordCount="6.0">
          <SimplePredicate field="omega_6_mg" operator="greaterThan" value="284.5"/>
          <ScoreDistribution value="20" recordCount="0.0"/>
          <ScoreDistribution value="2" recordCount="0.0"/>
          <ScoreDistribution value="19" recordCount="0.0"/>
          <ScoreDistribution value="3" recordCount="0.0"/>
          <ScoreDistribution value="24" recordCount="0.0"/>
          <ScoreDistribution value="15" recordCount="0.0"/>
          <ScoreDistribution value="13" recordCount="0.0"/>
          <ScoreDistribution value="5" recordCount="0.0"/>
          <ScoreDistribution value="11" recordCount="0.0"/>
          <ScoreDistribution value="22" recordCount="0.0"/>
          <ScoreDistribution value="14" recordCount="0.0"/>
          <ScoreDistribution value="4" recordCount="0.0"/>
          <ScoreDistribution value="16" recordCount="0.0"/>
          <ScoreDistribution value="10" recordCount="0.0"/>
          <ScoreDistribution value="21" recordCount="2.0"/>
          <ScoreDistribution value="1" recordCount="0.0"/>
          <ScoreDistribution value="12" recordCount="0.0"/>
          <ScoreDistribution value="7" recordCount="0.0"/>
          <ScoreDistribution value="25" recordCount="0.0"/>
          <ScoreDistribution value="26" recordCount="0.0"/>
          <ScoreDistribution value="9" recordCount="0.0"/>
          <ScoreDistribution value="27" recordCount="2.0"/>
          <ScoreDistribution value="6" recordCount="0.0"/>
          <ScoreDistribution value="23" recordCount="0.0"/>
          <ScoreDistribution value="18" recordCount="0.0"/>
          <ScoreDistribution value="17" recordCount="2.0"/>
          <ScoreDistribution value="8" recordCount="0.0"/>
          <Node id="20" score="21" recordCount="4.0">
            <SimplePredicate field="zinc_mg" operator="lessOrEqual" value="2.45"/>
            <ScoreDistribution value="20" recordCount="0.0"/>
            <ScoreDistribution value="2" recordCount="0.0"/>
            <ScoreDistribution value="19" recordCount="0.0"/>
            <ScoreDistribution value="3" recordCount="0.0"/>
            <ScoreDistribution value="24" recordCount="0.0"/>
            <ScoreDistribution value="15" recordCount="0.0"/>
            <ScoreDistribution value="13" recordCount="0.0"/>
            <ScoreDistribution value="5" recordCount="0.0"/>
            <ScoreDistribution value="11" recordCount="0.0"/>
            <ScoreDistribution value="22" recordCount="0.0"/>
            <ScoreDistribution value="14" recordCount="0.0"/>
            <ScoreDistribution value="4" recordCount="0.0"/>
            <ScoreDistribution value="16" recordCount="0.0"/>
            <ScoreDistribution value="10" recordCount="0.0"/>
            <ScoreDistribution value="21" recordCount="2.0"/>
            <ScoreDistribution value="1" recordCount="0.0"/>
            <ScoreDistribution value="12" recordCount="0.0"/>
            <ScoreDistribution value="7" recordCount="0.0"/>
            <ScoreDistribution value="25" recordCount="0.0"/>
            <ScoreDistribution value="26" recordCount="0.0"/>
            <ScoreDistribution value="9" recordCount="0.0"/>
            <ScoreDistribution value="27" recordCount="2.0"/>
            <ScoreDistribution value="6" recordCount="0.0"/>
            <ScoreDistribution value="23" recordCount="0.0"/>
            <ScoreDistribution value="18" recordCount="0.0"/>
            <ScoreDistribution value="17" recordCount="0.0"/>
            <ScoreDistribution value="8" recordCount="0.0"/>
            <Node id="21" score="27" recordCount="2.0">
              <SimplePredicate field="kalsium_mg" operator="lessOrEqual" value="109.0"/>
              <ScoreDistribution value="20" recordCount="0.0"/>
              <ScoreDistribution value="2" recordCount="0.0"/>
              <ScoreDistribution value="19" recordCount="0.0"/>
              <ScoreDistribution value="3" recordCount="0.0"/>
              <ScoreDistribution value="24" recordCount="0.0"/>
              <ScoreDistribution value="15" recordCount="0.0"/>
              <ScoreDistribution value="13" recordCount="0.0"/>
              <ScoreDistribution value="5" recordCount="0.0"/>
              <ScoreDistribution value="11" recordCount="0.0"/>
              <ScoreDistribution value="22" recordCount="0.0"/>
              <ScoreDistribution value="14" recordCount="0.0"/>
              <ScoreDistribution value="4" recordCount="0.0"/>
              <ScoreDistribution value="16" recordCount="0.0"/>
              <ScoreDistribution value="10" recordCount="0.0"/>
              <ScoreDistribution value="21" recordCount="0.0"/>
              <ScoreDistribution value="1" recordCount="0.0"/>
              <ScoreDistribution value="12" recordCount="0.0"/>
              <ScoreDistribution value="7" recordCount="0.0"/>
              <ScoreDistribution value="25" recordCount="0.0"/>
              <ScoreDistribution value="26" recordCount="0.0"/>
              <ScoreDistribution value="9" recordCount="0.0"/>
              <ScoreDistribution value="27" recordCount="2.0"/>
              <ScoreDistribution value="6" recordCount="0.0"/>
              <ScoreDistribution value="23" recordCount="0.0"/>
              <ScoreDistribution value="18" recordCount="0.0"/>
              <ScoreDistribution value="17" recordCount="0.0"/>
              <ScoreDistribution value="8" recordCount="0.0"/>
            </Node>
            <Node id="22" score="21" recordCount="2.0">
              <SimplePredicate field="kalsium_mg" operator="greaterThan" value="109.0"/>
              <ScoreDistribution value="20" recordCount="0.0"/>
              <ScoreDistribution value="2" recordCount="0.0"/>
              <ScoreDistribution value="19" recordCount="0.0"/>
              <ScoreDistribution value="3" recordCount="0.0"/>
              <ScoreDistribution value="24" recordCount="0.0"/>
              <ScoreDistribution value="15" recordCount="0.0"/>
              <ScoreDistribution value="13" recordCount="0.0"/>
              <ScoreDistribution value="5" recordCount="0.0"/>
              <ScoreDistribution value="11" recordCount="0.0"/>
              <ScoreDistribution value="22" recordCount="0.0"/>
              <ScoreDistribution value="14" recordCount="0.0"/>
              <ScoreDistribution value="4" recordCount="0.0"/>
              <ScoreDistribution value="16" recordCount="0.0"/>
              <ScoreDistribution value="10" recordCount="0.0"/>
              <ScoreDistribution value="21" recordCount="2.0"/>
              <ScoreDistribution value="1" recordCount="0.0"/>
              <ScoreDistribution value="12" recordCount="0.0"/>
              <ScoreDistribution value="7" recordCount="0.0"/>
              <ScoreDistribution value="25" recordCount="0.0"/>
              <ScoreDistribution value="26" recordCount="0.0"/>
              <ScoreDistribution value="9" recordCount="0.0"/>
              <ScoreDistribution value="27" recordCount="0.0"/>
              <ScoreDistribution value="6" recordCount="0.0"/>
              <ScoreDistribution value="23" recordCount="0.0"/>
              <ScoreDistribution value="18" recordCount="0.0"/>
              <ScoreDistribution value="17" recordCount="0.0"/>
              <ScoreDistribution value="8" recordCount="0.0"/>
            </Node>
          </Node>
          <Node id="23" score="17" recordCount="2.0">
            <SimplePredicate field="zinc_mg" operator="greaterThan" value="2.45"/>
            <ScoreDistribution value="20" recordCount="0.0"/>
            <ScoreDistribution value="2" recordCount="0.0"/>
            <ScoreDistribution value="19" recordCount="0.0"/>
            <ScoreDistribution value="3" recordCount="0.0"/>
            <ScoreDistribution value="24" recordCount="0.0"/>
            <ScoreDistribution value="15" recordCount="0.0"/>
            <ScoreDistribution value="13" recordCount="0.0"/>
            <ScoreDistribution value="5" recordCount="0.0"/>
            <ScoreDistribution value="11" recordCount="0.0"/>
            <ScoreDistribution value="22" recordCount="0.0"/>
            <ScoreDistribution value="14" recordCount="0.0"/>
            <ScoreDistribution value="4" recordCount="0.0"/>
            <ScoreDistribution value="16" recordCount="0.0"/>
            <ScoreDistribution value="10" recordCount="0.0"/>
            <ScoreDistribution value="21" recordCount="0.0"/>
            <ScoreDistribution value="1" recordCount="0.0"/>
            <ScoreDistribution value="12" recordCount="0.0"/>
            <ScoreDistribution value="7" recordCount="0.0"/>
            <ScoreDistribution value="25" recordCount="0.0"/>
            <ScoreDistribution value="26" recordCount="0.0"/>
            <ScoreDistribution value="9" recordCount="0.0"/>
            <ScoreDistribution value="27" recordCount="0.0"/>
            <ScoreDistribution value="6" recordCount="0.0"/>
            <ScoreDistribution value="23" recordCount="0.0"/>
            <ScoreDistribution value="18" recordCount="0.0"/>
            <ScoreDistribution value="17" recordCount="2.0"/>
            <ScoreDistribution value="8" recordCount="0.0"/>
          </Node>
        </Node>
      </Node>
      <Node id="24" score="2" recordCount="807.0">
        <SimplePredicate field="folate_ug" operator="greaterThan" value="50.5"/>
        <ScoreDistribution value="20" recordCount="30.0"/>
        <ScoreDistribution value="2" recordCount="31.0"/>
        <ScoreDistribution value="19" recordCount="29.0"/>
        <ScoreDistribution value="3" recordCount="31.0"/>
        <ScoreDistribution value="24" recordCount="30.0"/>
        <ScoreDistribution value="15" recordCount="31.0"/>
        <ScoreDistribution value="13" recordCount="30.0"/>
        <ScoreDistribution value="5" recordCount="30.0"/>
        <ScoreDistribution value="11" recordCount="30.0"/>
        <ScoreDistribution value="22" recordCount="31.0"/>
        <ScoreDistribution value="14" recordCount="30.0"/>
        <ScoreDistribution value="4" recordCount="31.0"/>
        <ScoreDistribution value="16" recordCount="29.0"/>
        <ScoreDistribution value="10" recordCount="31.0"/>
        <ScoreDistribution value="21" recordCount="29.0"/>
        <ScoreDistribution value="1" recordCount="29.0"/>
        <ScoreDistribution value="12" recordCount="31.0"/>
        <ScoreDistribution value="7" recordCount="31.0"/>
        <ScoreDistribution value="25" recordCount="31.0"/>
        <ScoreDistribution value="26" recordCount="30.0"/>
        <ScoreDistribution value="9" recordCount="30.0"/>
        <ScoreDistribution value="27" recordCount="28.0"/>
        <ScoreDistribution value="6" recordCount="24.0"/>
        <ScoreDistribution value="23" recordCount="31.0"/>
        <ScoreDistribution value="18" recordCount="31.0"/>
        <ScoreDistribution value="17" recordCount="29.0"/>
        <ScoreDistribution value="8" recordCount="29.0"/>
        <Node id="25" score="2" recordCount="682.0">
          <SimplePredicate field="lemak_g" operator="lessOrEqual" value="3.55"/>
          <ScoreDistribution value="20" recordCount="23.0"/>
          <ScoreDistribution value="2" recordCount="31.0"/>
          <ScoreDistribution value="19" recordCount="24.0"/>
          <ScoreDistribution value="3" recordCount="26.0"/>
          <ScoreDistribution value="24" recordCount="30.0"/>
          <ScoreDistribution value="15" recordCount="25.0"/>
          <ScoreDistribution value="13" recordCount="30.0"/>
          <ScoreDistribution value="5" recordCount="25.0"/>
          <ScoreDistribution value="11" recordCount="27.0"/>
          <ScoreDistribution value="22" recordCount="24.0"/>
          <ScoreDistribution value="14" recordCount="30.0"/>
          <ScoreDistribution value="4" recordCount="27.0"/>
          <ScoreDistribution value="16" recordCount="24.0"/>
          <ScoreDistribution value="10" recordCount="22.0"/>
          <ScoreDistribution value="21" recordCount="20.0"/>
          <ScoreDistribution value="1" recordCount="25.0"/>
          <ScoreDistribution value="12" recordCount="24.0"/>
          <ScoreDistribution value="7" recordCount="27.0"/>
          <ScoreDistribution value="25" recordCount="30.0"/>
          <ScoreDistribution value="26" recordCount="25.0"/>
          <ScoreDistribution value="9" recordCount="26.0"/>
          <ScoreDistribution value="27" recordCount="20.0"/>
          <ScoreDistribution value="6" recordCount="20.0"/>
          <ScoreDistribution value="23" recordCount="25.0"/>
          <ScoreDistribution value="18" recordCount="25.0"/>
          <ScoreDistribution value="17" recordCount="24.0"/>
          <ScoreDistribution value="8" recordCount="23.0"/>
          <Node id="26" score="12" recordCount="93.0">
            <SimplePredicate field="zinc_mg" operator="lessOrEqual" value="1.75"/>
            <ScoreDistribution value="20" recordCount="4.0"/>
            <ScoreDistribution value="2" recordCount="6.0"/>
            <ScoreDistribution value="19" recordCount="1.0"/>
            <ScoreDistribution value="3" recordCount="6.0"/>
            <ScoreDistribution value="24" recordCount="3.0"/>
            <ScoreDistribution value="15" recordCount="2.0"/>
            <ScoreDistribution value="13" recordCount="0.0"/>
            <ScoreDistribution value="5" recordCount="2.0"/>
            <ScoreDistribution value="11" recordCount="5.0"/>
            <ScoreDistribution value="22" recordCount="3.0"/>
            <ScoreDistribution value="14" recordCount="6.0"/>
            <ScoreDistribution value="4" recordCount="0.0"/>
            <ScoreDistribution value="16" recordCount="3.0"/>
            <ScoreDistribution value="10" recordCount="2.0"/>
            <ScoreDistribution value="21" recordCount="2.0"/>
            <ScoreDistribution value="1" recordCount="4.0"/>
            <ScoreDistribution value="12" recordCount="12.0"/>
            <ScoreDistribution value="7" recordCount="3.0"/>
            <ScoreDistribution value="25" recordCount="5.0"/>
            <ScoreDistribution value="26" recordCount="5.0"/>
            <ScoreDistribution value="9" recordCount="6.0"/>
            <ScoreDistribution value="27" recordCount="3.0"/>
            <ScoreDistribution value="6" recordCount="2.0"/>
            <ScoreDistribution value="23" recordCount="2.0"/>
            <ScoreDistribution value="18" recordCount="1.0"/>
            <ScoreDistribution value="17" recordCount="4.0"/>
            <ScoreDistribution value="8" recordCount="1.0"/>
            <Node id="27" score="12" recordCount="91.0">
              <SimplePredicate field="lemak_g" operator="lessOrEqual" value="3.45"/>
              <ScoreDistribution value="20" recordCount="4.0"/>
              <ScoreDistribution value="2" recordCount="6.0"/>
              <ScoreDistribution value="19" recordCount="1.0"/>
              <ScoreDistribution value="3" recordCount="6.0"/>
              <ScoreDistribution value="24" recordCount="3.0"/>
              <ScoreDistribution value="15" recordCount="2.0"/>
              <ScoreDistribution value="13" recordCount="0.0"/>
              <ScoreDistribution value="5" recordCount="2.0"/>
              <ScoreDistribution value="11" recordCount="5.0"/>
              <ScoreDistribution value="22" recordCount="3.0"/>
              <ScoreDistribution value="14" recordCount="6.0"/>
              <ScoreDistribution value="4" recordCount="0.0"/>
              <ScoreDistribution value="16" recordCount="3.0"/>
              <ScoreDistribution value="10" recordCount="2.0"/>
              <ScoreDistribution value="21" recordCount="2.0"/>
              <ScoreDistribution value="1" recordCount="4.0"/>
              <ScoreDistribution value="12" recordCount="12.0"/>
              <ScoreDistribution value="7" recordCount="3.0"/>
              <ScoreDistribution value="25" recordCount="5.0"/>
              <ScoreDistribution value="26" recordCount="5.0"/>
              <ScoreDistribution value="9" recordCount="6.0"/>
              <ScoreDistribution value="27" recordCount="3.0"/>
              <ScoreDistribution value="6" recordCount="2.0"/>
              <ScoreDistribution value="23" recordCount="2.0"/>
              <ScoreDistribution value="18" recordCount="1.0"/>
              <ScoreDistribution value="17" recordCount="2.0"/>
              <ScoreDistribution value="8" recordCount="1.0"/>
              <Node id="28" score="12" recordCount="62.0">
                <SimplePredicate field="zat_besi_mg" operator="lessOrEqual" value="0.8500000000000001"/>
                <ScoreDistribution value="20" recordCount="2.0"/>
                <ScoreDistribution value="2" recordCount="3.0"/>
                <ScoreDistribution value="19" recordCount="0.0"/>
                <ScoreDistribution value="3" recordCount="5.0"/>
                <ScoreDistribution value="24" recordCount="1.0"/>
                <ScoreDistribution value="15" recordCount="2.0"/>
                <ScoreDistribution value="13" recordCount="0.0"/>
                <ScoreDistribution value="5" recordCount="1.0"/>
                <ScoreDistribution value="11" recordCount="3.0"/>
                <ScoreDistribution value="22" recordCount="2.0"/>
                <ScoreDistribution value="14" recordCount="6.0"/>
                <ScoreDistribution value="4" recordCount="0.0"/>
                <ScoreDistribution value="16" recordCount="3.0"/>
                <ScoreDistribution value="10" recordCount="0.0"/>
                <ScoreDistribution value="21" recordCount="2.0"/>
                <ScoreDistribution value="1" recordCount="3.0"/>
                <ScoreDistribution value="12" recordCount="10.0"/>
                <ScoreDistribution value="7" recordCount="2.0"/>
                <ScoreDistribution value="25" recordCount="5.0"/>
                <ScoreDistribution value="26" recordCount="5.0"/>
                <ScoreDistribution value="9" recordCount="0.0"/>
                <ScoreDistribution value="27" recordCount="1.0"/>
                <ScoreDistribution value="6" recordCount="1.0"/>
                <ScoreDistribution value="23" recordCount="1.0"/>
                <ScoreDistribution value="18" recordCount="1.0"/>
                <ScoreDistribution value="17" recordCount="2.0"/>
                <ScoreDistribution value="8" recordCount="1.0"/>
                <Node id="29" score="12" recordCount="21.0">
                  <SimplePredicate field="kalsium_mg" operator="lessOrEqual" value="108.0"/>
                  <ScoreDistribution value="20" recordCount="1.0"/>
                  <ScoreDistribution value="2" recordCount="0.0"/>
                  <ScoreDistribution value="19" recordCount="0.0"/>
                  <ScoreDistribution value="3" recordCount="2.0"/>
                  <ScoreDistribution value="24" recordCount="0.0"/>
                  <ScoreDistribution value="15" recordCount="0.0"/>
                  <ScoreDistribution value="13" recordCount="0.0"/>
                  <ScoreDistribution value="5" recordCount="0.0"/>
                  <ScoreDistribution value="11" recordCount="1.0"/>
                  <ScoreDistribution value="22" recordCount="0.0"/>
                  <ScoreDistribution value="14" recordCount="2.0"/>
                  <ScoreDistribution value="4" recordCount="0.0"/>
                  <ScoreDistribution value="16" recordCount="0.0"/>
                  <ScoreDistribution value="10" recordCount="0.0"/>
                  <ScoreDistribution value="21" recordCount="0.0"/>
                  <ScoreDistribution value="1" recordCount="1.0"/>
                  <ScoreDistribution value="12" recordCount="8.0"/>
                  <ScoreDistribution value="7" recordCount="0.0"/>
                  <ScoreDistribution value="25" recordCount="4.0"/>
                  <ScoreDistribution value="26" recordCount="1.0"/>
                  <ScoreDistribution value="9" recordCount="0.0"/>
                  <ScoreDistribution value="27" recordCount="1.0"/>
                  <ScoreDistribution value="6" recordCount="0.0"/>
                  <ScoreDistribution value="23" recordCount="0.0"/>
                  <ScoreDistribution value="18" recordCount="0.0"/>
                  <ScoreDistribution value="17" recordCount="0.0"/>
                  <ScoreDistribution value="8" recordCount="0.0"/>
                  <Node id="30" score="3" recordCount="8.0">
                    <SimplePredicate field="omega_6_mg" operator="lessOrEqual" value="226.5"/>
                    <ScoreDistribution value="20" recordCount="1.0"/>
                    <ScoreDistribution value="2" recordCount="0.0"/>
                    <ScoreDistribution value="19" recordCount="0.0"/>
                    <ScoreDistribution value="3" recordCount="2.0"/>
                    <ScoreDistribution value="24" recordCount="0.0"/>
                    <ScoreDistribution value="15" recordCount="0.0"/>
                    <ScoreDistribution value="13" recordCount="0.0"/>
                    <ScoreDistribution value="5" recordCount="0.0"/>
                    <ScoreDistribution value="11" recordCount="0.0"/>
                    <ScoreDistribution value="22" recordCount="0.0"/>
                    <ScoreDistribution value="14" recordCount="1.0"/>
                    <ScoreDistribution value="4" recordCount="0.0"/>
                    <ScoreDistribution value="16" recordCount="0.0"/>
                    <ScoreDistribution value="10" recordCount="0.0"/>
                    <ScoreDistribution value="21" recordCount="0.0"/>
                    <ScoreDistribution value="1" recordCount="1.0"/>
                    <ScoreDistribution value="12" recordCount="0.0"/>
                    <ScoreDistribution value="7" recordCount="0.0"/>
                    <ScoreDistribution value="25" recordCount="2.0"/>
                    <ScoreDistribution value="26" recordCount="0.0"/>
                    <ScoreDistribution value="9" recordCount="0.0"/>
                    <ScoreDistribution value="27" recordCount="1.0"/>
                    <ScoreDistribution value="6" recordCount="0.0"/>
                    <ScoreDistribution value="23" recordCount="0.0"/>
                    <ScoreDistribution value="18" recordCount="0.0"/>
                    <ScoreDistribution value="17" recordCount="0.0"/>
                    <ScoreDistribution value="8" recordCount="0.0"/>
                    <Node id="31" score="3" recordCount="3.0">
                      <SimplePredicate field="vitamin_d_ug" operator="lessOrEqual" value="1.45"/>
                      <ScoreDistribution value="20" recordCount="0.0"/>
                      <ScoreDistribution value="2" recordCount="0.0"/>
                      <ScoreDistribution value="19" recordCount="0.0"/>
                      <ScoreDistribution value="3" recordCount="2.0"/>
                      <ScoreDistribution value="24" recordCount="0.0"/>
                      <ScoreDistribution value="15" recordCount="0.0"/>
                      <ScoreDistribution value="13" recordCount="0.0"/>
                      <ScoreDistribution value="5" recordCount="0.0"/>
                      <ScoreDistribution value="11" recordCount="0.0"/>
                      <ScoreDistribution value="22" recordCount="0.0"/>
                      <ScoreDistribution value="14" recordCount="0.0"/>
                      <ScoreDistribution value="4" recordCount="0.0"/>
                      <ScoreDistribution value="16" recordCount="0.0"/>
                      <ScoreDistribution value="10" recordCount="0.0"/>
                      <ScoreDistribution value="21" recordCount="0.0"/>
                      <ScoreDistribution value="1" recordCount="0.0"/>
                      <ScoreDistribution value="12" recordCount="0.0"/>
                      <ScoreDistribution value="7" recordCount="0.0"/>
                      <ScoreDistribution value="25" recordCount="0.0"/>
                      <ScoreDistribution value="26" recordCount="0.0"/>
                      <ScoreDistribution value="9" recordCount="0.0"/>
                      <ScoreDistribution value="27" recordCount="1.0"/>
                      <ScoreDistribution value="6" recordCount="0.0"/>
                      <ScoreDistribution value="23" recordCount="0.0"/>
                      <ScoreDistribution value="18" recordCount="0.0"/>
                      <ScoreDistribution value="17" recordCount="0.0"/>
                      <ScoreDistribution value="8" recordCount="0.0"/>
                    </Node>
                    <Node id="32" score="25" recordCount="5.0">
                      <SimplePredicate field="vitamin_d_ug" operator="greaterThan" value="1.45"/>
                      <ScoreDistribution value="20" recordCount="1.0"/>
                      <ScoreDistribution value="2" recordCount="0.0"/>
                      <ScoreDistribution value="19" recordCount="0.0"/>
                      <ScoreDistribution value="3" recordCount="0.0"/>
                      <ScoreDistribution value="24" recordCount="0.0"/>
                      <ScoreDistribution value="15" recordCount="0.0"/>
                      <ScoreDistribution value="13" recordCount="0.0"/>
                      <ScoreDistribution value="5" recordCount="0.0"/>
                      <ScoreDistribution value="11" recordCount="0.0"/>
                      <ScoreDistribution value="22" recordCount="0.0"/>
                      <ScoreDistribution value="14" recordCount="1.0"/>
                      <ScoreDistribution value="4" recordCount="0.0"/>
                      <ScoreDistribution value="16" recordCount="0.0"/>
                      <ScoreDistribution value="10" recordCount="0.0"/>
                      <ScoreDistribution value="21" recordCount="0.0"/>
                      <ScoreDistribution value="1" recordCount="1.0"/>
                      <ScoreDistribution value="12" recordCount="0.0"/>
                      <ScoreDistribution value="7" recordCount="0.0"/>
                      <ScoreDistribution value="25" recordCount="2.0"/>
                      <ScoreDistribution value="26" recordCount="0.0"/>
                      <ScoreDistribution value="9" recordCount="0.0"/>
                      <ScoreDistribution value="27" recordCount="0.0"/>
                      <ScoreDistribution value="6" recordCount="0.0"/>
                      <ScoreDistribution value="23" recordCount="0.0"/>
                      <ScoreDistribution value="18" recordCount="0.0"/>
                      <ScoreDistribution value="17" recordCount="0.0"/>
                      <ScoreDistribution value="8" recordCount="0.0"/>
                      <Node id="33" score="20" recordCount="3.0">
                        <SimplePredicate field="vitamin_a_ug" operator="lessOrEqual" value="350.0"/>
                        <ScoreDistribution value="20" recordCount="1.0"/>
                        <ScoreDistribution value="2" recordCount="0.0"/>
                        <ScoreDistribution value="19" recordCount="0.0"/>
                        <ScoreDistribution value="3" recordCount="0.0"/>
                        <ScoreDistribution value="24" recordCount="0.0"/>
                        <ScoreDistribution value="15" recordCount="0.0"/>
                        <ScoreDistribution value="13" recordCount="0.0"/>
                        <ScoreDistribution value="5" recordCount="0.0"/>
                        <ScoreDistribution value="11" recordCount="0.0"/>
                        <ScoreDistribution value="22" recordCount="0.0"/>
                        <ScoreDistribution value="14" recordCount="1.0"/>
                        <ScoreDistribution value="4" recordCount="0.0"/>
                        <ScoreDistribution value="16" recordCount="0.0"/>
                        <ScoreDistribution value="10" recordCount="0.0"/>
                        <ScoreDistribution value="21" recordCount="0.0"/>
                        <ScoreDistribution value="1" recordCount="1.0"/>
                        <ScoreDistribution value="12" recordCount="0.0"/>
                        <ScoreDistribution value="7" recordCount="0.0"/>
                        <ScoreDistribution value="25" recordCount="0.0"/>
                        <ScoreDistribution value="26" recordCount="0.0"/>
                        <ScoreDistribution value="9" recordCount="0.0"/>
                        <ScoreDistribution value="27" recordCount="0.0"/>
                        <ScoreDistribution value="6" recordCount="0.0"/>
                        <ScoreDistribution value="23" recordCount="0.0"/>
                        <ScoreDistribution value="18" recordCount="0.0"/>
                        <ScoreDistribution value="17" recordCount="0.0"/>
                        <ScoreDistribution value="8" recordCount="0.0"/>
                      </Node>
                      <Node id="34" score="25" recordCount="2.0">
                        <SimplePredicate field="vitamin_a_ug" operator="greaterThan" value="350.0"/>
                        <ScoreDistribution value="20" recordCount="0.0"/>
                        <ScoreDistribution value="2" recordCount="0.0"/>
                        <ScoreDistribution value="19" recordCount="0.0"/>
                        <ScoreDistribution value="3" recordCount="0.0"/>
                        <ScoreDistribution value="24" recordCount="0.0"/>
                        <ScoreDistribution value="15" recordCount="0.0"/>
                        <ScoreDistribution value="13" recordCount="0.0"/>
                        <ScoreDistribution value="5" recordCount="0.0"/>
                        <ScoreDistribution value="11" recordCount="0.0"/>
                        <ScoreDistribution value="22" recordCount="0.0"/>
                        <ScoreDistribution value="14" recordCount="0.0"/>
                        <ScoreDistribution value="4" recordCount="0.0"/>
                        <ScoreDistribution value="16" recordCount="0.0"/>
                        <ScoreDistribution value="10" recordCount="0.0"/>
                        <ScoreDistribution value="21" recordCount="0.0"/>
                        <ScoreDistribution value="1" recordCount="0.0"/>
                        <ScoreDistribution value="12" recordCount="0.0"/>
                        <ScoreDistribution value="7" recordCount="0.0"/>
                        <ScoreDistribution value="25" recordCount="2.0"/>
                        <ScoreDistribution value="26" recordCount="0.0"/>
                        <ScoreDistribution value="9" recordCount="0.0"/>
                        <ScoreDistribution value="27" recordCount="0.0"/>
                        <ScoreDistribution value="6" recordCount="0.0"/>
                        <ScoreDistribution value="23" recordCount="0.0"/>
                        <ScoreDistribution value="18" recordCount="0.0"/>
                        <ScoreDistribution value="17" recordCount="0.0"/>
                        <ScoreDistribution value="8" recordCount="0.0"/>
                      </Node>
                    </Node>
                  </Node>
                  <Node id="35" score="12" recordCount="13.0">
                    <SimplePredicate field="omega_6_mg" operator="greaterThan" value="226.5"/>
                    <ScoreDistribution value="20" recordCount="0.0"/>
                    <ScoreDistribution value="2" recordCount="0.0"/>
                    <ScoreDistribution value="19" recordCount="0.0"/>
                    <ScoreDistribution value="3" recordCount="0.0"/>
                    <ScoreDistribution value="24" recordCount="0.0"/>
                    <ScoreDistribution value="15" recordCount="0.0"/>
                    <ScoreDistribution value="13" recordCount="0.0"/>
                    <ScoreDistribution value="5" recordCount="0.0"/>
                    <ScoreDistribution value="11" recordCount="1.0"/>
                    <ScoreDistribution value="22" recordCount="0.0"/>
                    <ScoreDistribution value="14" recordCount="1.0"/>
                    <ScoreDistribution value="4" recordCount="0.0"/>
                    <ScoreDistribution value="16" recordCount="0.0"/>
                    <ScoreDistribution value="10" recordCount="0.0"/>
                    <ScoreDistribution value="21" recordCount="0.0"/>
                    <ScoreDistribution value="1" recordCount="0.0"/>
                    <ScoreDistribution value="12" recordCount="8.0"/>
                    <ScoreDistribution value="7" recordCount="0.0"/>
                    <ScoreDistribution value="25" recordCount="2.0"/>
                    <ScoreDistribution value="26" recordCount="1.0"/>
                    <ScoreDistribution value="9" recordCount="0.0"/>
                    <ScoreDistribution value="27" recordCount="0.0"/>
                    <ScoreDistribution value="6" recordCount="0.0"/>
                    <ScoreDistribution value="23" recordCount="0.0"/>
                    <ScoreDistribution value="18" recordCount="0.0"/>
                    <ScoreDistribution value="17" recordCount="0.0"/>
                    <ScoreDistribution value="8" recordCount="0.0"/>
                    <Node id="36" score="12" recordCount="10.0">
                      <SimplePredicate field="omega_6_mg" operator="lessOrEqual" value="292.5"/>
                      <ScoreDistribution value="20" recordCount="0.0"/>
                      <ScoreDistribution value="2" recordCount="0.0"/>
                      <ScoreDistribution value="19" recordCount="0.0"/>
                      <ScoreDistribution value="3" recordCount="0.0"/>
                      <ScoreDistribution value="24" recordCount="0.0"/>
                      <ScoreDistribution value="15" recordCount="0.0"/>
                      <ScoreDistribution value="13" recordCount="0.0"/>
                      <ScoreDistribution value="5" recordCount="0.0"/>
                      <ScoreDistribution value="11" recordCount="0.0"/>
                      <ScoreDistribution value="22" recordCount="0.0"/>
                      <ScoreDistribution value="14" recordCount="1.0"/>
                      <ScoreDistribution value="4" recordCount="0.0"/>
                      <ScoreDistribution value="16" recordCount="0.0"/>
                      <ScoreDistribution value="10" recordCount="0.0"/>
                      <ScoreDistribution value="21" recordCount="0.0"/>
                      <ScoreDistribution value="1" recordCount="0.0"/>
                      <ScoreDistribution value="12" recordCount="8.0"/>
                      <ScoreDistribution value="7" recordCount="0.0"/>
                      <ScoreDistribution value="25" recordCount="1.0"/>
                      <ScoreDistribution value="26" recordCount="0.0"/>
                      <ScoreDistribution value="9" recordCount="0.0"/>
                      <ScoreDistribution value="27" recordCount="0.0"/>
                      <ScoreDistribution value="6" recordCount="0.0"/>
                      <ScoreDistribution value="23" recordCount="0.0"/>
                      <ScoreDistribution value="18" recordCount="0.0"/>
                      <ScoreDistribution value="17" recordCount="0.0"/>
                      <ScoreDistribution value="8" recordCount="0.0"/>
                    </Node>
                    <Node id="39" score="11" recordCount="3.0">
                      <SimplePredicate field="omega_6_mg" operator="greaterThan" value="292.5"/>
                      <ScoreDistribution value="20" recordCount="0.0"/>
                      <ScoreDistribution value="2" recordCount="0.0"/>
                      <ScoreDistribution value="19" recordCount="0.0"/>
                      <ScoreDistribution value="3" recordCount="0.0"/>
                      <ScoreDistribution value="24" recordCount="0.0"/>
                      <ScoreDistribution value="15" recordCount="0.0"/>
                      <ScoreDistribution value="13" recordCount="0.0"/>
                      <ScoreDistribution value="5" recordCount="0.0"/>
                      <ScoreDistribution value="11" recordCount="1.0"/>
                      <ScoreDistribution value="22" recordCount="0.0"/>
                      <ScoreDistribution value="14" recordCount="0.0"/>
                      <ScoreDistribution value="4" recordCount="0.0"/>
                      <ScoreDistribution value="16" recordCount="0.0"/>
                      <ScoreDistribution value="10" recordCount="0.0"/>
                      <ScoreDistribution value="21" recordCount="0.0"/>
                      <ScoreDistribution value="1" recordCount="0.0"/>
                      <ScoreDistribution value="12" recordCount="0.0"/>
                      <ScoreDistribution value="7" recordCount="0.0"/>
                      <ScoreDistribution value="25" recordCount="1.0"/>
                      <ScoreDistribution value="26" recordCount="1.0"/>
                      <ScoreDistribution value="9" recordCount="0.0"/>
                      <ScoreDistribution value="27" recordCount="0.0"/>
                      <ScoreDistribution value="6" recordCount="0.0"/>
                      <ScoreDistribution value="23" recordCount="0.0"/>
                      <ScoreDistribution value="18" recordCount="0.0"/>
                      <ScoreDistribution value="17" recordCount="0.0"/>
                      <ScoreDistribution value="8" recordCount="0.0"/>
                    </Node>
                  </Node>
                </Node>
                <Node id="40" score="14" recordCount="41.0">
                  <SimplePredicate field="kalsium_mg" operator="greaterThan" value="108.0"/>
                  <ScoreDistribution value="20" recordCount="1.0"/>
                  <ScoreDistribution value="2" recordCount="3.0"/>
                  <ScoreDistribution value="19" recordCount="0.0"/>
                  <ScoreDistribution value="3" recordCount="3.0"/>
                  <ScoreDistribution value="24" recordCount="1.0"/>
                  <ScoreDistribution value="15" recordCount="2.0"/>
                  <ScoreDistribution value="13" recordCount="0.0"/>
                  <ScoreDistribution value="5" recordCount="1.0"/>
                  <ScoreDistribution value="11" recordCount="2.0"/>
                  <ScoreDistribution value="22" recordCount="2.0"/>
                  <ScoreDistribution value="14" recordCount="4.0"/>
                  <ScoreDistribution value="4" recordCount="0.0"/>
                  <ScoreDistribution value="16" recordCount="3.0"/>
                  <ScoreDistribution value="10" recordCount="0.0"/>
                  <ScoreDistribution value="21" recordCount="2.0"/>
                  <ScoreDistribution value="1" recordCount="2.0"/>
                  <ScoreDistribution value="12" recordCount="2.0"/>
                  <ScoreDistribution value="7" recordCount="2.0"/>
                  <ScoreDistribution value="25" recordCount="1.0"/>
                  <ScoreDistribution value="26" recordCount="4.0"/>
                  <ScoreDistribution value="9" recordCount="0.0"/>
                  <ScoreDistribution value="27" recordCount="0.0"/>
                  <ScoreDistribution value="6" recordCount="1.0"/>
                  <ScoreDistribution value="23" recordCount="1.0"/>
                  <ScoreDistribution value="18" recordCount="1.0"/>
                  <ScoreDistribution value="17" recordCount="2.0"/>
                  <ScoreDistribution value="8" recordCount="1.0"/>
                  <Node id="41" score="14" recordCount="39.0">
                    <SimplePredicate field="omega_3_mg" operator="lessOrEqual" value="232.0"/>
                    <ScoreDistribution value="20" recordCount="1.0"/>
                    <ScoreDistribution value="2" recordCount="3.0"/>
                    <ScoreDistribution value="19" recordCount="0.0"/>
                    <ScoreDistribution value="3" recordCount="3.0"/>
                    <ScoreDistribution value="24" recordCount="1.0"/>
                    <ScoreDistribution value="15" recordCount="2.0"/>
                    <ScoreDistribution value="13" recordCount="0.0"/>
                    <ScoreDistribution value="5" recordCount="1.0"/>
                    <ScoreDistribution value="11" recordCount="2.0"/>
                    <ScoreDistribution value="22" recordCount="2.0"/>
                    <ScoreDistribution value="14" recordCount="4.0"/>
                    <ScoreDistribution value="4" recordCount="0.0"/>
                    <ScoreDistribution value="16" recordCount="1.0"/>
                    <ScoreDistribution value="10" recordCount="0.0"/>
                    <ScoreDistribution value="21" recordCount="2.0"/>
                    <ScoreDistribution value="1" recordCount="2.0"/>
                    <ScoreDistribution value="12" recordCount="2.0"/>
                    <ScoreDistribution value="7" recordCount="2.0"/>
                    <ScoreDistribution value="25" recordCount="1.0"/>
                    <ScoreDistribution value="26" recordCount="4.0"/>
                    <ScoreDistribution value="9" recordCount="0.0"/>
                    <ScoreDistribution value="27" recordCount="0.0"/>
                    <ScoreDistribution value="6" recordCount="1.0"/>
                    <ScoreDistribution value="23" recordCount="1.0"/>
                    <ScoreDistribution value="18" recordCount="1.0"/>
                    <ScoreDistribution value="17" recordCount="2.0"/>
                    <ScoreDistribution value="8" recordCount="1.0"/>
                    <Node id="42" score="11" recordCount="2.0">
                      <SimplePredicate field="kalsium_mg" operator="lessOrEqual" value="111.5"/>
                      <ScoreDistribution value="20" recordCount="0.0"/>
                      <ScoreDistribution value="2" recordCount="0.0"/>
                      <ScoreDistribution value="19" recordCount="0.0"/>
                      <ScoreDistribution value="3" recordCount="0.0"/>
                      <ScoreDistribution value="24" recordCount="0.0"/>
                      <ScoreDistribution value="15" recordCount="0.0"/>
                      <ScoreDistribution value="13" recordCount="0.0"/>
                      <ScoreDistribution value="5" recordCount="0.0"/>
                      <ScoreDistribution value="11" recordCount="2.0"/>
                      <ScoreDistribution value="22" recordCount="0.0"/>
                      <ScoreDistribution value="14" recordCount="0.0"/>
                      <ScoreDistribution value="4" recordCount="0.0"/>
                      <ScoreDistribution value="16" recordCount="0.0"/>
                      <ScoreDistribution value="10" recordCount="0.0"/>
                      <ScoreDistribution value="21" recordCount="0.0"/>
                      <ScoreDistribution value="1" recordCount="0.0"/>
                      <ScoreDistribution value="12" recordCount="0.0"/>
                      <ScoreDistribution value="7" recordCount="0.0"/>
                      <ScoreDistribution value="25" recordCount="0.0"/>
                      <ScoreDistribution value="26" recordCount="0.0"/>
                      <ScoreDistribution value="9" recordCount="0.0"/>
                      <ScoreDistribution value="27" recordCount="0.0"/>
                      <ScoreDistribution value="6" recordCount="0.0"/>
                      <ScoreDistribution value="23" recordCount="0.0"/>
                      <ScoreDistribution value="18" recordCount="0.0"/>
                      <ScoreDistribution value="17" recordCount="0.0"/>
                      <ScoreDistribution value="8" recordCount="0.0"/>
                    </Node>
                    <Node id="43" score="14" recordCount="37.0">
                      <SimplePredicate field="kalsium_mg" operator="greaterThan" value="111.5"/>
                      <ScoreDistribution value="20" recordCount="1.0"/>
                      <ScoreDistribution value="2" recordCount="3.0"/>
                      <ScoreDistribution value="19" recordCount="0.0"/>
                      <ScoreDistribution value="3" recordCount="3.0"/>
                      <ScoreDistribution value="24" recordCount="1.0"/>
                      <ScoreDistribution value="15" recordCount="2.0"/>
                      <ScoreDistribution value="13" recordCount="0.0"/>
                      <ScoreDistribution value="5" recordCount="1.0"/>
                      <ScoreDistribution value="11" recordCount="0.0"/>
                      <ScoreDistribution value="22" recordCount="2.0"/>
                      <ScoreDistribution value="14" recordCount="4.0"/>
                      <ScoreDistribution value="4" recordCount="0.0"/>
                      <ScoreDistribution value="16" recordCount="1.0"/>
                      <ScoreDistribution value="10" recordCount="0.0"/>
                      <ScoreDistribution value="21" recordCount="2.0"/>
                      <ScoreDistribution value="1" recordCount="2.0"/>
                      <ScoreDistribution value="12" recordCount="2.0"/>
                      <ScoreDistribution value="7" recordCount="2.0"/>
                      <ScoreDistribution value="25" recordCount="1.0"/>
                      <ScoreDistribution value="26" recordCount="4.0"/>
                      <ScoreDistribution value="9" recordCount="0.0"/>
                      <ScoreDistribution value="27" recordCount="0.0"/>
                      <ScoreDistribution value="6" recordCount="1.0"/>
                      <ScoreDistribution value="23" recordCount="1.0"/>
                      <ScoreDistribution value="18" recordCount="1.0"/>
                      <ScoreDistribution value="17" recordCount="2.0"/>
                      <ScoreDistribution value="8" recordCount="1.0"/>
                      <Node id="44" score="15" recordCount="4.0">
                        <SimplePredicate field="lemak_g" operator="lessOrEqual" value="1.65"/>
                        <ScoreDistribution value="20" recordCount="0.0"/>
                        <ScoreDistribution value="2" recordCount="0.0"/>
                        <ScoreDistribution value="19" recordCount="0.0"/>
                        <ScoreDistribution value="3" recordCount="0.0"/>
                        <ScoreDistribution value="24" recordCount="0.0"/>
                        <ScoreDistribution value="15" recordCount="2.0"/>
                        <ScoreDistribution value="13" recordCount="0.0"/>
                        <ScoreDistribution value="5" recordCount="0.0"/>
                        <ScoreDistribution value="11" recordCount="0.0"/>
                        <ScoreDistribution value="22" recordCount="0.0"/>
                        <ScoreDistribution value="14" recordCount="2.0"/>
                        <ScoreDistribution value="4" recordCount="0.0"/>
                        <ScoreDistribution value="16" recordCount="0.0"/>
                        <ScoreDistribution value="10" recordCount="0.0"/>
                        <ScoreDistribution value="21" recordCount="0.0"/>
                        <ScoreDistribution value="1" recordCount="0.0"/>
                        <ScoreDistribution value="12" recordCount="0.0"/>
                        <ScoreDistribution value="7" recordCount="0.0"/>
                        <ScoreDistribution value="25" recordCount="0.0"/>
                        <ScoreDistribution value="26" recordCount="0.0"/>
                        <ScoreDistribution value="9" recordCount="0.0"/>
                        <ScoreDistribution value="27" recordCount="0.0"/>
                        <ScoreDistribution value="6" recordCount="0.0"/>
                        <ScoreDistribution value="23" recordCount="0.0"/>
                        <ScoreDistribution value="18" recordCount="0.0"/>
                        <ScoreDistribution value="17" recordCount="0.0"/>
                        <ScoreDistribution value="8" recordCount="0.0"/>
                        <Node id="45" score="14" recordCount="2.0">
                          <SimplePredicate field="magnesium_mg" operator="lessOrEqual" value="30.5"/>
                          <ScoreDistribution value="20" recordCount="0.0"/>
                          <ScoreDistribution value="2" recordCount="0.0"/>
                          <ScoreDistribution value="19" recordCount="0.0"/>
                          <ScoreDistribution value="3" recordCount="0.0"/>
                          <ScoreDistribution value="24" recordCount="0.0"/>
                          <ScoreDistribution value="15" recordCount="0.0"/>
                          <ScoreDistribution value="13" recordCount="0.0"/>
                          <ScoreDistribution value="5" recordCount="0.0"/>
                          <ScoreDistribution value="11" recordCount="0.0"/>
                          <ScoreDistribution value="22" recordCount="0.0"/>
                          <ScoreDistribution value="14" recordCount="2.0"/>
                          <ScoreDistribution value="4" recordCount="0.0"/>
                          <ScoreDistribution value="16" recordCount="0.0"/>
                          <ScoreDistribution value="10" recordCount="0.0"/>
                          <ScoreDistribution value="21" recordCount="0.0"/>
                          <ScoreDistribution value="1" recordCount="0.0"/>
                          <ScoreDistribution value="12" recordCount="0.0"/>
                          <ScoreDistribution value="7" recordCount="0.0"/>
                          <ScoreDistribution value="25" recordCount="0.0"/>
                          <ScoreDistribution value="26" recordCount="0.0"/>
                          <ScoreDistribution value="9" recordCount="0.0"/>
                          <ScoreDistribution value="27" recordCount="0.0"/>
                          <ScoreDistribution value="6" recordCount="0.0"/>
                          <ScoreDistribution value="23" recordCount="0.0"/>
                          <ScoreDistribution value="18" recordCount="0.0"/>
                          <ScoreDistribution value="17" recordCount="0.0"/>
                          <ScoreDistribution value="8" recordCount="0.0"/>
                        </Node>
                        <Node id="46" score="15" recordCount="2.0">
                          <SimplePredicate field="magnesium_mg" operator="greaterThan" value="30.5"/>
                          <ScoreDistribution value="20" recordCount="0.0"/>
                          <ScoreDistribution value="2" recordCount="0.0"/>
                          <ScoreDistribution value="19" recordCount="0.0"/>
                          <ScoreDistribution value="3" recordCount="0.0"/>
                          <ScoreDistribution value="24" recordCount="0.0"/>
                          <ScoreDistribution value="15" recordCount="2.0"/>
                          <ScoreDistribution value="13" recordCount="0.0"/>
                          <ScoreDistribution value="5" recordCount="0.0"/>
                          <ScoreDistribution value="11" recordCount="0.0"/>
                          <ScoreDistribution value="22" recordCount="0.0"/>
                          <ScoreDistribution value="14" recordCount="0.0"/>
                          <ScoreDistribution value="4" recordCount="0.0"/>
                          <ScoreDistribution value="16" recordCount="0.0"/>
                          <ScoreDistribution value="10" recordCount="0.0"/>
                          <ScoreDistribution value="21" recordCount="0.0"/>
                          <ScoreDistribution value="1" recordCount="0.0"/>
                          <ScoreDistribution value="12" recordCount="0.0"/>
                          <ScoreDistribution value="7" recordCount="0.0"/>
                          <ScoreDistribution value="25" recordCount="0.0"/>
                          <ScoreDistribution value="26" recordCount="0.0"/>
                          <ScoreDistribution value="9" recordCount="0.0"/>
                          <ScoreDistribution value="27" recordCount="0.0"/>
                          <ScoreDistribution value="6" recordCount="0.0"/>
                          <ScoreDistribution value="23" recordCount="0.0"/>
                          <ScoreDistribution value="18" recordCount="0.0"/>
                          <ScoreDistribution value="17" recordCount="0.0"/>
                          <ScoreDistribution value="8" recordCount="0.0"/>
                        </Node>
                      </Node>
                      <Node id="47" score="26" recordCount="33.0">
                        <SimplePredicate field="lemak_g" operator="greaterThan" value="1.65"/>
                        <ScoreDistribution value="20" recordCount="1.0"/>
                        <ScoreDistribution value="2" recordCount="3.0"/>
                        <ScoreDistribution value="19" recordCount="0.0"/>
                        <ScoreDistribution value="3" recordCount="3.0"/>
                        <ScoreDistribution value="24" recordCount="1.0"/>
                        <ScoreDistribution value="15" recordCount="0.0"/>
                        <ScoreDistribution value="13" recordCount="0.0"/>
                        <ScoreDistribution value="5" recordCount="1.0"/>
                        <ScoreDistribution value="11" recordCount="0.0"/>
                        <ScoreDistribution value="22" recordCount="2.0"/>
                        <ScoreDistribution value="14" recordCount="2.0"/>
                        <ScoreDistribution value="4" recordCount="0.0"/>
                        <ScoreDistribution value="16" recordCount="1.0"/>
                        <ScoreDistribution value="10" recordCount="0.0"/>
                        <ScoreDistribution value="21" recordCount="2.0"/>
                        <ScoreDistribution value="1" recordCount="2.0"/>
                        <ScoreDistribution value="12" recordCount="2.0"/>
                        <ScoreDistribution value="7" recordCount="2.0"/>
                        <ScoreDistribution value="25" recordCount="1.0"/>
                        <ScoreDistribution value="26" recordCount="4.0"/>
                        <ScoreDistribution value="9" recordCount="0.0"/>
                        <ScoreDistribution value="27" recordCount="0.0"/>
                        <ScoreDistribution value="6" recordCount="1.0"/>
                        <ScoreDistribution value="23" recordCount="1.0"/>
                        <ScoreDistribution value="18" recordCount="1.0"/>
                        <ScoreDistribution value="17" recordCount="2.0"/>
                        <ScoreDistribution value="8" recordCount="1.0"/>
                        <Node id="48" score="26" recordCount="28.0">
                          <SimplePredicate field="omega_6_mg" operator="lessOrEqual" value="279.5"/>
                          <ScoreDistribution value="20" recordCount="1.0"/>
                          <ScoreDistribution value="2" recordCount="2.0"/>
                          <ScoreDistribution value="19" recordCount="0.0"/>
                          <ScoreDistribution value="3" recordCount="0.0"/>
                          <ScoreDistribution value="24" recordCount="1.0"/>
                          <ScoreDistribution value="15" recordCount="0.0"/>
                          <ScoreDistribution value="13" recordCount="0.0"/>
                          <ScoreDistribution value="5" recordCount="1.0"/>
                          <ScoreDistribution value="11" recordCount="0.0"/>
                          <ScoreDistribution value="22" recordCount="2.0"/>
                          <ScoreDistribution value="14" recordCount="2.0"/>
                          <ScoreDistribution value="4" recordCount="0.0"/>
                          <ScoreDistribution value="16" recordCount="1.0"/>
                          <ScoreDistribution value="10" recordCount="0.0"/>
                          <ScoreDistribution value="21" recordCount="2.0"/>
                          <ScoreDistribution value="1" recordCount="2.0"/>
                          <ScoreDistribution value="12" recordCount="1.0"/>
                          <ScoreDistribution value="7" recordCount="2.0"/>
                          <ScoreDistribution value="25" recordCount="1.0"/>
                          <ScoreDistribution value="26" recordCount="4.0"/>
                          <ScoreDistribution value="9" recordCount="0.0"/>
                          <ScoreDistribution value="27" recordCount="0.0"/>
                          <ScoreDistribution value="6" recordCount="1.0"/>
                          <ScoreDistribution value="23" recordCount="1.0"/>
                          <ScoreDistribution value="18" recordCount="1.0"/>
                          <ScoreDistribution value="17" recordCount="2.0"/>
                          <ScoreDistribution value="8" recordCount="1.0"/>
                          <Node id="49" score="26" recordCount="11.0">
                            <SimplePredicate field="kalsium_mg" operator="lessOrEqual" value="131.5"/>
                            <ScoreDistribution value="20" recordCount="1.0"/>
                            <ScoreDistribution value="2" recordCount="2.0"/>
                            <ScoreDistribution value="19" recordCount="0.0"/>
                            <ScoreDistribution value="3" recordCount="0.0"/>
                            <ScoreDistribution value="24" recordCount="0.0"/>
                            <ScoreDistribution value="15" recordCount="0.0"/>
                            <ScoreDistribution value="13" recordCount="0.0"/>
                            <ScoreDistribution value="5" recordCount="0.0"/>
                            <ScoreDistribution value="11" recordCount="0.0"/>
                            <ScoreDistribution value="22" recordCount="0.0"/>
                            <ScoreDistribution value="14" recordCount="2.0"/>
                            <ScoreDistribution value="4" recordCount="0.0"/>
                            <ScoreDistribution value="16" recordCount="0.0"/>
                            <ScoreDistribution value="10" recordCount="0.0"/>
                            <ScoreDistribution value="21" recordCount="0.0"/>
                            <ScoreDistribution value="1" recordCount="1.0"/>
                            <ScoreDistribution value="12" recordCount="0.0"/>
                            <ScoreDistribution value="7" recordCount="0.0"/>
                            <ScoreDistribution value="25" recordCount="0.0"/>
                            <ScoreDistribution value="26" recordCount="3.0"/>
                            <ScoreDistribution value="9" recordCount="0.0"/>
                            <ScoreDistribution value="27" recordCount="0.0"/>
                            <ScoreDistribution value="6" recordCount="0.0"/>
                            <ScoreDistribution value="23" recordCount="0.0"/>
                            <ScoreDistribution value="18" recordCount="1.0"/>
                            <ScoreDistribution value="17" recordCount="0.0"/>
                            <ScoreDistribution value="8" recordCount="1.0"/>
                            <Node id="50" score="26" recordCount="6.0">
                              <SimplePredicate field="zinc_mg" operator="lessOrEqual" value="1.65"/>
                              <ScoreDistribution value="20" recordCount="1.0"/>
                              <ScoreDistribution value="2" recordCount="2.0"/>
                              <ScoreDistribution value="19" recordCount="0.0"/>
